svm_type c_svc
kernel_type rbf
gamma 0.0315
nr_class 7
total_sv 225
rho 1.01456 0.829496 0.982045 0.909947 0.883815 0.87733 -0.719236 0.743669 0.00814874 -0.192644 0.276485 2.09332 1.36457 0.909257 1.09935 -0.159286 -0.53579 -0.778811 -0.413486 -0.230103 -0.141535
label 1 2 3 4 5 6 7
nr_sv 1 43 37 48 41 28 27
SV
2 2 2 2 2 2 1:1 2:1 3:1 4:1 5:1 6:1 7:1 8:1 
-0 2 2 2 2 2 9:1 10:1 11:1 12:1 13:1 14:1 
-0.007776243464999771 0 0 0 0 0 1:1 3:1 4:1 5:1 15:1 16:1 17:2 18:2 19:1 20:1 21:2 
-0 2 1.212743527479378 1.21124019501125 0.1268550520288237 0.113250487556537 3:1 9:1 11:1 20:1 22:1 23:1 24:1 25:1 
-0.1700395122645425 0 0 0 0 0 3:1 4:1 5:1 15:1 19:1 26:1 27:1 
-0 2 2 2 1.452413292811759 2 25:1 28:1 
-0 2 0.4263720135298739 2 0.7367418586835394 0 3:1 4:1 5:1 9:1 15:2 17:1 19:1 21:1 29:1 
-0.02537351043146026 0 1.629526286480141 0 0 2 3:1 6:1 25:1 29:1 
-0.3469394960826109 0.9262712368974453 2 0.7611427166422466 0.8780698384811848 1.982093398361759 2:1 6:1 8:1 16:1 30:1 31:1 
-0.03438370720274913 1.143034362793884 0 0.9592390254101096 0.6691547235404165 0 3:2 9:1 20:1 23:1 24:1 25:1 32:1 
-0 0.3741800167123817 2 0 0 1.38376210318859 3:1 25:1 
-0 0 1.924506356076673 1.220086239238603 0 0.1388847661059331 1:1 2:1 16:1 21:1 
-0 2 2 2 0.2533162207419865 0.1543204359264368 9:1 13:1 14:1 15:1 16:1 17:1 18:1 33:1 
-0 0 0 0 0 2 16:1 17:1 18:1 19:1 29:1 
-0 0 0 0 0 0.2558960161418455 13:1 14:1 15:1 16:1 17:1 33:1 
-0 0 0.3735990528727433 0.2230805669207066 0 0.6550625590327587 3:1 17:2 18:2 19:1 34:1 
-0 0.3577938913760743 1.577322630158169 0.2492311472971409 0.2670974671929234 1.232857523745686 1:1 3:1 15:3 17:1 19:1 35:1 36:1 37:1 
-0 0 0.8543963775383044 0 0 0.09587307958228022 1:1 12:1 13:1 14:1 15:1 18:2 22:2 25:1 38:1 
-0 0.2188189514084977 1.165377042678967 0.3704820470712377 0.2373714126761554 0.4456280752359341 1:1 3:1 12:1 15:1 18:1 28:1 29:1 39:1 40:1 41:1 42:1 43:1 
-0.1700395122645418 0 0.09400185620916618 0 0 0 3:1 4:1 5:1 15:1 19:1 27:1 44:1 
-0 0 2 1.334826276168162 1.307818560902513 2 2:1 16:1 21:1 26:1 
-0 0 0.5695103204963158 0 0 0 15:1 16:1 17:1 18:1 19:1 44:1 
-0 2 0 0 0 0 1:1 15:1 16:1 21:1 
-0.05558135839078328 0 0 0 0 0 1:1 3:1 15:1 25:1 28:1 
-0 0.06475914766650377 1.796037173308689 1.039407390057721 0.8387058044465523 0.8816797501636209 2:1 3:2 9:1 12:2 15:1 18:2 19:2 25:1 29:1 46:1 47:3 48:1 49:1 50:1 51:1 52:1 53:1 54:1 55:1 56:1 57:1 58:1 59:1 60:1 61:1 62:1 63:1 
-0.1181820989665616 0 0 0 0 0 1:1 3:1 4:1 5:1 13:1 14:1 15:2 16:1 17:1 33:1 64:1 
-0 0.3836751220680963 0.4377007892710341 1.134908852108997 1.101054759601179 0 3:1 9:2 13:1 14:1 15:2 16:1 17:1 20:1 22:1 23:1 26:1 28:1 33:1 65:1 
-0.1169270139430799 0.5666777196768815 2 1.242292095587292 1.337786451962572 1.110377277476943 2:1 3:1 8:1 10:1 14:1 20:1 62:1 66:1 67:1 68:1 69:1 70:1 71:1 72:1 73:1 
-0 0.07360176180138135 1.289696501046974 0.4111974770423997 0.2157753348564503 0.8980844738797236 3:1 6:1 14:1 19:1 34:1 62:1 74:2 75:1 76:1 
-0 2 2 2 2 2 9:1 16:1 20:1 22:1 
-0.1336930935439539 0 1.458309846214053 0.1620693006687495 0 0.9522220827273703 3:1 7:1 10:1 11:1 14:1 24:1 28:1 77:1 78:1 
-0 2 2 2 1.531122094067266 2 21:1 79:1 
-0 0.5391174120364691 2 0.9540010233287911 0 2 15:1 17:1 19:1 79:1 
-0 2 2 1.925989287553945 0 1.191887882160451 15:1 21:1 26:1 79:1 
-0.01167015203635488 0.4076021934108055 0.03764990525913816 0 0 0 1:1 7:1 15:1 19:1 27:1 79:1 
-0 1.488790469432195 2 0.348951514902731 0.9707847499977023 0.8930259233890742 15:1 19:1 27:1 79:1 80:1 
-0 0 0 0 0 1.221863312970086 15:1 19:1 26:1 27:1 29:1 79:1 
-0 2 2 2 1.154780250854191 2 6:1 27:1 81:1 82:1 
-0 2 2 2 1.181223472415065 2 25:1 81:1 
-0 0 0 0.02625180073681382 0 0.3778783371732466 16:1 19:1 27:1 30:1 
-0 0 1.255491920132888 0 0 2 3:1 19:1 27:1 
-0.2359683852345713 0 0.6440306035712378 0 0 0.0211657989390679 3:1 4:1 5:1 18:1 19:1 27:1 30:1 
-0.5734259161737909 1.751025210071896 2 0.562275466675233 2 2 1:1 2:1 6:1 16:1 29:1 
-0 1.062782567733318 2 1.185671707804538 1.746364021282803 0.5505262028552041 15:2 16:1 17:1 30:1 83:1 84:1 
-0.4379932742036995 -0.1470030742347858 0 0 0.4723306287010817 0.8674163953761594 6:1 8:1 9:1 15:1 31:1 87:1 88:1 
-0.1135174569233025 -0 0 1.198628127768277 0.9722756603843226 0 7:1 9:1 15:1 73:1 89:1 90:1 
-0 -0 1.974228683429206 0 0 0 9:1 15:1 73:1 86:1 91:1 
-0 -0 2 0 0 0 7:1 9:1 15:1 73:1 89:1 91:1 
-0 -0 0 0 0.154618043419207 0 9:1 15:1 20:1 21:1 73:1 85:1 89:1 
-0 -2 2 2 0.1681674733198918 0 9:1 15:1 21:1 92:1 
-0 -2 2 2 0.2966527252655657 0 9:1 15:1 21:1 91:1 
-0 -0 0 1.96030920181979 0 0 9:1 15:1 73:1 86:1 93:1 
-0 -0 0 2 0 0 9:2 15:1 
-0 -0 2 0 0.07383905004434692 2 9:1 15:1 87:1 88:1 
-0 -2 1.38349497649745 0.3468442150430902 0.5563516804962516 1.998622472351699 1:1 15:1 20:1 73:2 87:1 89:1 94:1 95:1 
-0.4032392607408218 -1.859292495747019 2 0.6558492680839867 2 2 1:1 2:1 15:1 73:2 86:1 87:1 94:1 95:1 
-0.1115478353318562 -1.796236673377784 0.9319858834007992 0 0.2750506063730919 2 6:1 9:1 15:1 29:1 85:1 
-0 -0.7079774520022091 2 2 0 1.977926529433413 9:1 85:1 
-0 -0 2 2 2 2 9:1 87:1 88:1 
-0 -1.866532545549134 0 2 0 0 9:1 15:1 21:1 85:1 
-0.1035768791666899 -1.535239914859685 2 2 1.274729266692447 1.636646394568677 9:1 45:2 55:1 96:1 97:1 
-0 -0 0 0 0 0.5597286070307251 6:1 9:1 15:1 87:1 88:1 
-0 -0.3961004181474354 1.728329104608335 0 0 0 6:1 9:1 15:1 31:1 88:1 
-0 -0 2 1.295983429927061 0 0 9:1 15:1 85:1 
-0.04168967427582239 -0 0 0.6057218057277582 0 0 6:1 9:1 15:1 83:1 85:1 
-0 -0 0.9899385412225437 0.2450956571621635 0.5219382608424281 0 6:1 9:1 15:2 45:1 83:1 85:1 98:1 99:1 
-0.159869449922322 -2 2 2 1.383040491900678 2 9:1 91:1 
-0.0273082071884304 -1.712150266120405 2 1.888627247278875 2 2 6:1 9:1 15:1 20:1 71:1 88:1 100:1 
-0 -2 2 2 0.09003982787329749 2 9:1 88:1 
-0 -0 0.5966551447218398 0.05538781380956082 1.974772381363125 1.063384002050419 6:1 9:1 15:1 83:1 87:1 88:1 
-0.09989014770445383 -1.512569200499648 2 1.384438429692979 1.035882166306942 0.8856622562266073 6:1 9:1 15:1 24:3 83:1 85:1 101:1 102:1 
-0.02081311776486749 -0.2236406956184105 1.639883454345379 2 1.357181993304117 0.03473564619003074 6:1 9:2 10:1 17:1 36:1 67:1 73:1 88:1 97:1 103:1 104:1 105:1 106:1 107:1 108:1 109:1 
-0 -0 0 0 0.3905299805590804 0.5080583551568322 8:1 9:1 15:1 29:1 73:1 87:1 88:1 89:1 110:1 
-0 -0.04462725842081117 1.746354750315823 1.702806407390989 1.159277667322175 0.05927629928230235 9:1 15:1 20:1 34:1 47:1 73:1 85:1 89:1 111:1 112:1 113:1 
-0.1598516568290159 -2 2 2 1.667703511896054 2 9:1 93:1 
-0.1598694499223184 -2 2 2 1.507136449302019 2 9:1 92:1 
-0.1608335900263997 -2 2 2 1.657859201375201 2 9:1 114:1 
-0 -0 1.564823824532727 0.3490406574474287 0 0 8:1 9:1 15:1 73:1 86:1 91:1 
-0 -1.580292540859007 2 2 0.8125217583919427 0.8198579190822888 9:1 15:1 64:1 105:1 115:1 
-0 -0 0 0.4650979303917161 0.2811914333963846 0 9:1 15:1 73:1 89:1 90:1 
-0 -1.976467527649496 2 2 2 0.6744374340906474 9:1 15:1 116:1 117:1 
-0 -0 -2 1.46573512635287 1.828149061540176 2 9:1 15:1 37:1 62:1 65:1 87:1 88:1 118:1 119:1 120:1 121:1 
-0 -0.9410865599267008 -2 2 0.371242349256019 0 9:1 15:1 56:1 82:1 121:1 122:1 123:1 
-0.148997553477627 -2 -2 2 1.941072662137857 2 2:1 9:1 37:1 124:1 
-0 -1.592133045227011 -2 2 1.907601180361554 2 9:1 12:1 15:1 20:1 29:1 52:1 99:1 125:1 126:1 
-0 -0.5293821470235945 -0 0.9264200593666232 1.292995906675021 0.4114390971925271 15:1 55:1 56:1 65:1 83:1 127:1 128:1 129:1 130:1 131:1 132:1 
-0.1179379999883121 -1.863673118423304 -0 0.6044747691157274 0 2 6:1 18:1 37:1 133:1 134:1 135:1 136:1 
-0 -0.5781363595866488 -0 1.679144760097297 0.5043595671410114 1.440174549142228 10:1 52:1 91:1 137:1 138:1 139:1 
-0 -0 -2 2 0.9014554111105534 0 2:1 9:1 15:1 20:1 71:1 83:1 140:1 141:1 142:1 143:1 
-0.05456712513452511 -0.6176135626531136 -0 0.1580481566770587 0.6385482531775692 1.863328003143885 6:1 18:1 29:1 56:1 60:1 83:1 88:1 143:1 144:1 145:1 146:1 147:1 
-0.07791552786583768 -1.507121443198388 -0 0 0 1.858217399433268 2:1 20:1 71:1 83:1 140:1 141:1 142:1 143:1 
-0 -0.3646627651823757 -0 0 0 0.854398714733699 12:1 18:1 19:1 37:1 62:1 88:1 121:1 142:1 148:1 149:1 150:1 151:1 
-0 -1.469961383276476 -1.113659739230766 1.221740263778938 0.8169835215128293 0.1671653416508021 9:1 13:1 14:1 15:2 20:1 62:1 99:1 111:1 152:1 153:1 154:1 
-0.06318115065856587 -0.7162924407702747 -0.1756149271094555 0 0 2 6:1 19:1 37:1 60:1 88:1 99:1 151:1 155:1 156:1 
-0.1968837488052394 -0.927519223825249 -0 1.082463078693422 1.699944484519511 0 2:2 6:2 9:1 16:1 36:1 47:1 65:1 111:1 113:1 132:1 157:1 158:1 
-0 -1.024103259395487 -0.368352833753754 0.5152980008898299 0.3416956972702884 1.879530168001114 19:1 60:1 88:1 99:1 149:1 150:1 151:1 159:1 160:1 
-0 -0 -2 2 0 0 2:1 9:2 15:1 37:1 55:1 91:1 105:1 144:1 
-0.01942459731989905 -1.24598939394518 -0 0 0 0.5474840953947578 62:1 91:1 161:1 162:1 163:1 164:1 
-0 -1.42274673010313 -1.06355491077049 0.3016683091849197 0 0 10:1 15:1 30:1 91:1 95:1 165:1 166:1 
-0 -0 -0 1.487919170293443 0.698714298925289 0.3022160355472716 2:1 9:1 10:1 15:1 20:1 47:1 65:1 88:1 120:1 132:1 167:1 168:1 169:1 170:1 171:1 
-0 -1.900000023769771 -0.06934975670424011 0.5458068903340465 0 1.2216118361232 15:1 17:1 30:1 47:1 101:1 172:1 173:1 174:1 
-0.06429645710028614 -2 -2 0 0 2 91:1 175:1 
-0 -0 -1.645403959330551 0.3776163969128923 0 2 88:1 91:1 144:1 165:1 176:1 
-0.1087469943767327 -2 -2 2 0.8662349642213854 2 177:1 178:1 
-0.01039252654850589 -0.4114864650326993 -0 0 0 0.3146228368697527 2:2 10:1 15:2 17:1 25:1 47:1 54:1 88:1 127:1 135:1 142:1 178:1 179:1 180:1 181:1 182:1 183:1 184:1 
-0.1949924732642029 -1.537856448414387 -0 0.127459021599865 0.1982943249139451 1.892777396252955 1:1 2:1 19:1 47:1 68:1 87:1 101:1 185:1 186:1 187:1 188:1 189:1 
-0.06406187907575731 -1.126026412558677 -0 0.7546279732021993 0 0.008980303876770596 2:1 10:1 28:1 121:1 142:1 143:1 190:1 191:1 
-0 -2 -2 1.122080394068369 0.6078433111215702 2 10:1 14:1 15:1 63:1 88:1 192:1 193:1 
-0 -0.3366919687736188 -1.518198709860659 2 0.05949241647910531 0 9:1 18:1 60:1 121:1 194:1 195:1 196:1 197:1 
-0.1690792694434933 -0.9999733198649093 -0 0 1.054646927977845 0.5503970000813264 2:2 12:1 20:1 52:1 121:1 197:1 198:1 199:1 
-0 -0.7387487348196872 -0 0 0.1540472756463592 0.5342628491628274 15:1 18:2 19:1 57:1 60:1 62:1 88:1 135:1 161:1 197:1 200:2 201:1 202:1 203:1 
-0.01962592406223438 -0.9608205672964586 -0.7858592005239536 0.6582558507597952 0.05936766297176502 0.6903777053746506 10:1 15:1 105:1 168:1 172:1 204:1 
-0.3027913733857553 -2 -1.90831999207163 1.268311430021993 0 2 6:1 183:1 205:1 206:1 
-0 -0 -2 2 0.9563879137058194 0 9:1 12:1 47:1 62:1 73:1 101:1 142:1 207:1 208:1 
-0.09058782512036184 -0.623622531461244 -0.8313343107928 0 0 0.7080477034019989 6:1 46:1 47:1 91:1 209:1 210:1 
-0 -1.095794510895533 -0 0.3666243331890517 0.308307629431794 0.2148139481591028 12:1 18:1 91:1 117:1 204:1 211:1 212:1 213:1 
-0.1214194206293649 -2 -2 2 1.383994023754121 0 3:1 6:1 9:2 15:1 25:1 28:1 47:1 65:1 72:1 104:1 
-0 -0.9342661396175357 -0.8563301498905623 1.378019661825768 0.9473692820058067 0.6712656098373315 10:1 15:1 20:1 63:1 73:1 134:1 180:1 214:1 215:1 216:1 217:1 218:1 
-0 -0 -2 2 0.3787870179740325 0.1680913905640868 9:1 15:1 20:1 91:1 204:1 219:1 
-0 -2 -2 0 1.725804891548942 2 15:1 132:1 167:1 205:1 
-0.06256849428882344 -0.3107256178013661 -0 0 0.3836692466664259 2 2:1 6:1 12:1 20:1 47:1 87:1 121:1 220:1 221:1 222:1 
-0 -2 -2 2 0.7836723700891326 2 2:1 9:1 15:1 19:1 21:1 56:1 87:1 223:1 224:1 225:1 
-0 -0 -2 1.747809990860283 0.9604215388688329 0 9:1 18:1 62:1 73:1 91:1 161:1 182:1 226:1 227:1 
-0 -1.756006297096865 -2 2 1.772015668237007 2 9:1 48:1 105:1 111:1 
-0.1125296594544756 -2 -2 2 0.8644588099061561 2 228:1 229:1 
-0 -1.192996922895575 -2 2 0.5303910488973049 0 9:1 14:1 15:1 17:1 55:1 83:1 91:1 172:1 230:1 
-0 -0 -0.2197158730352412 0.9627245794300548 1.627830237443295 0 2:1 9:1 20:1 65:1 91:1 95:1 132:1 231:1 232:1 
-0 -0.02083480948848533 -2 2 1.974669432562256 0.3865029129297895 9:1 55:1 101:1 183:1 
-0 -2 -0 0 0 1.796007483712947 18:1 101:1 172:1 233:1 
-0 -0 -2 -0.6717924983524339 0.9985207170836373 1.148086929961813 9:1 12:1 83:1 117:1 149:1 234:1 
-0 -0 -1.276683929176612 -0 1.365571297965626 0 9:1 15:1 20:1 235:1 236:1 237:1 
-0.05888557104623095 -2 -2 -2 1.289673866068124 1.401066929768593 9:1 15:1 129:1 237:1 238:1 
-0.1592162533537395 -1.198239374556726 -0.9136446681873648 -2 1.191855620693111 1.420052893744099 2:1 9:1 55:1 83:1 234:1 239:1 240:1 
-0.2947424962144164 -2 -2 -2 0.8994621050504595 2 16:1 17:1 120:1 241:1 242:1 243:1 
-0 -0 -0 -0.1227879982488076 0.01015861447371421 0 9:3 17:1 62:2 65:1 139:1 143:1 144:1 149:2 244:1 245:1 246:1 247:1 248:1 249:1 250:1 251:1 252:1 253:1 
-0 -0.08678463547671691 -0 -0.5128844750942843 1.247223560247922 0.2559072707061711 9:1 10:1 20:1 62:1 65:1 111:1 146:1 236:1 254:1 255:1 256:1 257:1 258:1 
-0.2815082773586212 -0.2614187317575654 -0.3867274180268173 -0.5203196288082365 0.5247071455772823 0 5:1 9:1 10:1 55:1 83:1 236:1 245:1 
-0.008518775661343242 -2 -2 -2 1.790382682254092 1.611035655148276 9:1 16:1 143:1 144:1 243:1 
-0 -1.130915948856415 -1.781608844776221 -0.9212628151274315 0 1.039933209487634 9:1 144:1 178:1 234:1 
-0 -2 -2 -2 0.5423688351355549 0.495331579387083 9:1 15:1 20:1 21:1 26:1 120:1 237:1 
-0.02248934675525055 -0 -0 -0 0 0.3405181538348073 9:1 28:1 36:1 143:1 144:1 149:1 237:1 259:1 
-0.006809748075129022 -0 -0 -0 0 0 9:1 36:1 143:1 144:1 178:1 234:1 
-0 -2 -2 -2 0.1920924885722918 1.543978912456966 9:1 15:1 34:1 237:1 
-0 -0 -1.92197771705114 -1.030929816957107 0.6626846687257851 0 9:1 10:1 15:1 55:1 235:1 236:1 260:1 
-0.07135014748053553 -0.842346721288489 -0.9897368080673262 -1.277470394608582 0 1.060068151964119 9:1 34:1 124:1 144:1 243:1 250:1 251:1 255:1 261:1 
-0 -0 -0 -0 0.5386313962304964 0 2:1 9:2 10:1 14:1 15:1 21:2 47:1 55:1 65:1 73:1 146:1 235:1 236:1 256:1 257:1 
-0.01760305345574499 -0.01514435622706497 -2 -2 0 0 9:1 15:1 144:1 178:1 237:1 
-0.02602726738115406 -2 -2 -2 0.6505061776414267 2 9:1 15:1 17:1 21:1 37:1 262:1 263:1 
-0.1261942632810991 -1.971726499422725 -0 -1.55308790972437 2 2 10:1 12:1 55:1 236:1 258:1 264:1 
-0 -0 -2 -1.237922253469161 1.684702309249441 0 9:2 15:2 34:1 234:1 
-0 -0.05714416069728571 -0 -0 0 0.1028109368482717 9:1 21:2 37:1 47:1 55:2 111:1 237:1 
-0 -0 -0.206856679899166 -0.4993591325374117 1.30724578465853 0 9:2 17:1 55:1 65:1 83:1 111:1 144:1 265:1 266:1 
-0 -0.557006428031166 -0.4621011111732271 -1.356720904328915 0.2765330381856301 0 2:1 9:2 10:1 18:1 20:1 21:2 47:1 55:1 105:1 180:1 230:1 240:1 268:1 269:1 270:1 
-0.239862561886246 -2 -2 -2 0 2 9:1 234:1 
-0 -0.611354669642332 -1.591446320812453 -1.746619307507419 0.4343268210880135 1.152691066354877 9:1 10:1 125:1 143:1 236:1 273:1 
-0 -0.2768029123603307 -2 -2 1.422197747232543 0 9:2 93:1 252:1 
-0 -0 -1.498236547820064 -1.980544325857949 0.6709361584505684 0 9:2 36:1 62:1 65:1 73:1 91:1 111:1 124:1 224:1 234:1 274:1 275:1 
-0 -1.655760411763468 -0.831913203875315 -2 2 1.030345688277591 10:1 12:1 15:1 55:1 236:1 258:1 264:1 276:1 
-0 -1.522191328217588 -2 -1.305887893835877 1.122962178709705 1.147876204261883 9:1 10:1 68:1 236:1 278:1 
-0 -0 -0.5276146531037289 -1.09360946645584 0.1449744941100009 0 9:1 10:1 15:1 55:1 83:1 125:1 236:1 256:1 257:1 
-0 -0 -0 -0.9006116948994851 0 0.05206326171044886 9:1 15:1 20:1 21:1 37:1 55:1 235:1 237:1 
-0 -1.108393447977713 -0.3461055855086987 -2 1.302763747874754 1.274126627292694 9:1 15:1 17:1 20:2 36:1 47:1 52:1 61:1 65:1 137:1 149:1 178:1 235:1 280:1 281:1 
-0 -0 -1.5675282577484 -0 0 0 9:2 15:1 20:1 21:1 55:1 234:1 282:1 283:1 
-0.125898203830561 -0.1569200047912247 -0 -0.7362708393526383 0.9770734691519839 0.09195389243753355 1:1 2:1 9:1 12:1 15:1 20:1 34:1 62:1 73:1 120:1 134:1 149:1 202:1 237:1 258:1 275:1 279:1 285:1 286:1 287:1 
-0.1051182154253363 -1.376636597098953 -0.7650240631446572 -1.934949553151164 2 0.3837827019853085 6:1 9:1 10:1 12:1 14:1 61:1 62:1 65:1 73:1 117:1 234:1 
-0.08693875578997451 -0.3915693263668582 -0.7011889027075267 -0.7978655775410843 1.818585238480711 0.4576914844435584 2:1 9:1 17:1 65:1 73:1 117:1 233:1 237:1 258:1 288:1 289:1 290:1 291:1 
-0.1869835653754997 -1.299496351430054 -0.07789294443463646 -2 0.71064565453116 1.304803762166274 2:2 9:1 20:1 28:1 47:1 68:1 234:1 247:1 257:1 286:1 287:1 292:1 293:1 294:1 295:1 
-0.09444028185461034 -0.8642087886774722 -2 -2 0.1012646545255098 2 9:1 37:1 237:1 296:1 297:1 298:1 
-0.02052903902212501 -0.681346876609607 -0.3075425360303193 -0.2818894373814706 0.3277509714988476 0.3279427775121434 6:1 9:2 15:1 19:1 27:1 29:2 234:1 237:1 
-0.06688417675238251 -1.256936558976913 -0 -0.2694622934147789 0.004227115161705012 0 3:1 9:1 12:1 15:1 17:1 20:1 21:1 47:1 52:1 65:1 117:1 149:1 235:1 237:1 259:1 299:1 
-0 -0.8578749869154291 -0.4549907192424366 -1.389122810048738 -2 0.7527448212491606 9:1 10:1 12:1 55:1 73:1 236:1 289:1 300:1 301:1 
-0 -0.5638700217536732 -0 -1.198251627563927 -2 0.5984426623705553 9:1 10:1 12:1 20:1 73:1 236:1 301:1 302:1 
-0 -0.09502870995934579 -1.392796609194734 -0.2686730291028908 -2 0 9:1 10:1 12:1 15:1 73:1 236:1 266:1 301:1 
-0.2764381882743178 -2 -2 -2 -2 2 2:1 9:1 83:1 117:1 266:1 303:1 304:1 
-0 -1.738785147923473 -2 -2 -1.577271115716051 1.563167758531841 9:1 15:1 20:1 132:1 185:1 301:1 305:1 
-0 -0.8359362114875624 -2 -1.992754817352306 -0.2652621637359615 2 6:1 9:1 65:1 67:1 87:1 88:1 132:1 301:1 
-0 -0.2165151823591859 -2 -1.706695401424168 -0.3182361169547259 2 9:1 15:1 52:1 62:1 87:1 88:1 146:1 301:1 306:1 
-0.2490036767866191 -2 -1.624304639517716 -2 -0.895007731022834 2 12:1 20:1 73:1 236:1 301:1 302:1 
-0 -0.6934320583196604 -1.856418043697377 -0.5263351098237473 -2 0 9:1 10:1 12:1 15:1 73:1 236:1 276:1 300:1 301:1 
-0 -0 -0.8438131272478442 -0 -0.2244698989789152 0 6:1 9:2 15:1 20:1 52:1 65:1 87:1 88:1 146:1 149:1 301:1 
-0 -0 -2 -0.9710920148906461 -0.4673103311437882 1.637703015989964 9:1 15:2 52:1 61:1 87:1 88:1 264:1 301:1 308:1 
-0.1307820742729917 -0 -0 -0 -0 0 2:1 6:1 9:1 15:1 52:1 61:1 65:1 87:1 88:1 264:1 301:1 309:1 
-0.06623251596687291 -0 -0.7425024105711032 -0.6154985849395106 -0.1422640825493991 0 6:1 9:1 65:1 67:1 90:1 132:1 301:1 
-0 -0 -0.4052129955864553 -0.8212908229439978 -0.2742952737754474 0 9:1 15:1 52:1 62:1 90:1 146:1 301:1 306:1 
-0 -0 -0 -0 -0.6896549492319861 0 6:1 9:2 15:1 20:1 52:1 65:1 90:1 146:1 149:1 301:1 
-0 -0 -0.1390444586106549 -0.1651941791729961 -0.2958693155971271 0 9:1 15:2 52:1 61:1 90:1 264:1 301:1 308:1 
-0.01913781771426472 -0.4951338968252411 -0 -0 -0.2208950938898059 0 2:1 6:1 9:1 15:1 16:1 55:1 65:1 258:1 276:1 291:1 301:1 
-0.2364975605438465 -2 -1.289161412436742 -2 -2 0.9538916523802059 6:1 9:1 16:1 65:1 67:1 132:1 301:1 
-0.02022514836743724 -2 -0.2865358681515326 -1.311408790340886 -1.626589200064372 0.5872614795787463 9:1 15:1 16:1 52:1 62:1 146:1 301:1 306:1 
-0 -0 -0 -0.2978223452791508 -0.3905721452198231 0 6:1 9:2 15:1 16:1 20:1 52:1 65:1 146:1 149:1 301:1 
-0 -2 -0.1481236740421171 -0.6263370460862202 -1.033304461059351 0 9:1 15:2 16:1 52:1 61:1 264:1 301:1 308:1 
-0.1938528241597272 -1.530169759650122 -1.975776072141897 -2 -2 1.500574970839813 2:2 9:1 61:1 73:1 83:1 117:1 185:1 266:1 303:1 
-0.1235102656980543 -0 -0.1462872103621642 -0.4392541234978564 -0.7710149836931185 0.787871239062776 2:1 6:1 9:1 55:1 65:1 87:1 88:1 111:1 258:1 291:1 301:1 
-0 -0.1637275399768795 -0.7781230177268748 -1.090631631537393 -1.076158425257883 0 6:1 9:2 15:2 20:1 55:1 65:1 111:2 258:1 291:1 301:1 310:1 311:1 
-0 -0 -0 -1.120106054046144 -1.530132932761325 0 2:1 9:2 15:1 55:1 65:1 111:2 258:1 291:1 301:1 312:1 313:1 314:1 
-0.2904649523306837 -2 -2 -2 -2 2 20:1 29:1 62:1 149:1 315:1 316:1 317:1 318:1 
-0.1285379063770939 -0.8159618513725099 -0 -2 -0.4117203379767108 1.515185611219043 2:1 15:1 65:1 124:1 132:1 264:1 276:1 301:1 
-0.2653170695080911 -2 -2 -2 -2 2 2:1 55:1 65:1 90:1 121:1 258:1 264:1 291:1 
-0.05533180886719589 -2 -1.306365758575329 -2 -1.561638908058157 -0.853329606577053 309:2 319:1 320:1 321:1 
-0.0847983752556046 -0.9540243023802384 -0.6658698313040755 -1.767031964498903 -0.7913520541141154 -0.9711219024761341 2:1 15:1 17:1 20:1 87:1 88:1 139:1 152:1 322:1 323:1 324:1 325:1 326:1 
-0 -0 -2 -1.063323217515894 -0 -0 15:1 20:1 87:1 88:1 327:1 328:1 329:1 
-0.2881151821323055 -2 -0.7734265605180217 -2 -1.882914464654402 -2 2:1 6:1 14:1 16:1 20:1 83:1 133:1 330:1 
-0.01723630590018246 -1.1333577126119 -1.961971512896435 -1.857332807433852 -0.9405751223049974 -1.273077364576715 2:1 6:1 9:1 14:1 15:1 19:1 20:1 27:1 29:1 37:1 52:1 87:1 88:1 331:1 
-0.3446383975423657 -2 -2 -2 -2 -2 2:1 9:1 37:1 124:1 
-0.02050814906110333 -2 -1.357416560290293 -2 -1.122971291402125 -0.577007144153864 26:1 275:1 332:1 333:1 
-0.7528523739853983 -2 -2 -2 -1.615823921343418 -1.019248474489739 6:1 7:1 98:1 334:1 
-0 -2 -0 -2 -0.3090100789280305 -0 19:1 47:1 335:1 336:1 
-0 -0.006452250391185822 -0 -1.40116890954606 -0.3304506755989872 -0.9008202226074199 12:1 29:1 52:1 87:1 88:1 149:1 294:1 337:1 
-0 -1.985003383778056 -2 -2 -2 -1.502868774332298 9:1 29:1 37:1 149:1 338:1 339:1 340:1 
-0.04591491508651683 -1.691457512149932 -0.09430288510332033 -2 -0.8556331391041964 -0.603701929300959 10:1 17:1 18:2 19:1 52:1 76:1 87:1 88:1 274:1 343:1 344:1 345:1 346:1 
-0.2332209947776388 -2 -2 -2 -0.4773529311025569 -0.1301954689058741 6:1 29:1 347:1 
-0 -0.5071131844023098 -0 -1.064583245030039 -0.3867764795472076 -0.4420191062963753 10:1 19:1 20:1 36:1 67:1 87:1 88:1 98:1 260:1 350:1 351:1 352:1 353:1 
-0 -2 -2 -2 -2 -2 354:1 
-0 -2 -0 -2 -0.7311849137229481 -0 29:1 37:1 99:1 355:1 356:1 
-0 -2 -2 -2 -2 -2 357:1 
-0 -0.9826892510757779 -1.016861037176451 -1.428902082774511 -0.7532142175626979 -0.7055768955674628 12:1 15:1 29:1 87:1 88:1 135:1 322:1 358:1 359:1 360:1 361:1 
-0.09799265756028216 -0.6876086820907836 -0.315717584603289 -1.235372095968675 -0.4118488466362736 -0.5872589115338767 2:1 15:1 29:1 36:1 87:1 88:1 142:1 143:1 326:1 362:1 363:1 
-0.0267240018132771 -2 -1.357925052145951 -2 -1.647070389814201 -0.5770071441538644 125:1 275:1 332:1 333:1 
-0 -2 -0.5775133152163138 -2 -2 -0 17:1 37:1 257:1 364:1 365:1 366:1 
-0 -1.578044219743285 -0.6496455803952378 -2 -0 -0.7281775498867308 15:1 19:1 27:1 37:1 65:1 87:1 88:1 369:1 
-0 -1.044612676961688 -1.463208594666709 -1.969371214179782 -0.9234321347816279 -1.375054415409461 15:1 20:1 87:1 88:1 327:1 328:1 329:1 
-0 -0.4110733486029109 -0.9732859343867714 -0.6946268436385751 -0 -0.4284081231524305 29:1 67:1 87:1 88:1 140:1 372:1 373:1 
-0 -1.022429017242578 -2 -2 -0.9130138534683021 -0.7530146245380134 15:1 36:1 87:1 88:1 171:1 260:1 368:1 374:1 
-0.03266683801812915 -2 -1.885773473677234 -2 -1.987804667605902 -0.4689555532638319 19:1 47:1 335:1 336:1 
-0 -0.5524739451819012 -0.6864686298843705 -2 -0 -0 18:1 29:1 60:1 87:1 88:1 175:1 363:1 375:1 
